FANN_FLO_2.1
num_layers=3
learning_rate=0.700000
connection_rate=1.000000
network_type=0
learning_momentum=0.000000
training_algorithm=2
train_error_function=1
train_stop_function=0
cascade_output_change_fraction=0.010000
quickprop_decay=-0.000100
quickprop_mu=1.750000
rprop_increase_factor=1.200000
rprop_decrease_factor=0.500000
rprop_delta_min=0.000000
rprop_delta_max=50.000000
rprop_delta_zero=0.100000
cascade_output_stagnation_epochs=12
cascade_candidate_change_fraction=0.010000
cascade_candidate_stagnation_epochs=12
cascade_max_out_epochs=150
cascade_min_out_epochs=50
cascade_max_cand_epochs=150
cascade_min_cand_epochs=50
cascade_num_candidate_groups=2
bit_fail_limit=3.49999999999999977796e-01
cascade_candidate_limit=1.00000000000000000000e+03
cascade_weight_multiplier=4.00000000000000022204e-01
cascade_activation_functions_count=10
cascade_activation_functions=3 5 7 8 10 11 14 15 16 17 
cascade_activation_steepnesses_count=4
cascade_activation_steepnesses=2.50000000000000000000e-01 5.00000000000000000000e-01 7.50000000000000000000e-01 1.00000000000000000000e+00 
layer_sizes=11 33 2 
scale_included=0
neurons (num_inputs, activation_function, activation_steepness)=(0, 0, 0.00000000000000000000e+00) (0, 0, 0.00000000000000000000e+00) (0, 0, 0.00000000000000000000e+00) (0, 0, 0.00000000000000000000e+00) (0, 0, 0.00000000000000000000e+00) (0, 0, 0.00000000000000000000e+00) (0, 0, 0.00000000000000000000e+00) (0, 0, 0.00000000000000000000e+00) (0, 0, 0.00000000000000000000e+00) (0, 0, 0.00000000000000000000e+00) (0, 0, 0.00000000000000000000e+00) (11, 4, 5.00000000000000000000e-01) (11, 4, 5.00000000000000000000e-01) (11, 4, 5.00000000000000000000e-01) (11, 4, 5.00000000000000000000e-01) (11, 4, 5.00000000000000000000e-01) (11, 4, 5.00000000000000000000e-01) (11, 4, 5.00000000000000000000e-01) (11, 4, 5.00000000000000000000e-01) (11, 4, 5.00000000000000000000e-01) (11, 4, 5.00000000000000000000e-01) (11, 4, 5.00000000000000000000e-01) (11, 4, 5.00000000000000000000e-01) (11, 4, 5.00000000000000000000e-01) (11, 4, 5.00000000000000000000e-01) (11, 4, 5.00000000000000000000e-01) (11, 4, 5.00000000000000000000e-01) (11, 4, 5.00000000000000000000e-01) (11, 4, 5.00000000000000000000e-01) (11, 4, 5.00000000000000000000e-01) (11, 4, 5.00000000000000000000e-01) (11, 4, 5.00000000000000000000e-01) (11, 4, 5.00000000000000000000e-01) (11, 4, 5.00000000000000000000e-01) (11, 4, 5.00000000000000000000e-01) (11, 4, 5.00000000000000000000e-01) (11, 4, 5.00000000000000000000e-01) (11, 4, 5.00000000000000000000e-01) (11, 4, 5.00000000000000000000e-01) (11, 4, 5.00000000000000000000e-01) (11, 4, 5.00000000000000000000e-01) (11, 4, 5.00000000000000000000e-01) (11, 4, 5.00000000000000000000e-01) (0, 0, 0.00000000000000000000e+00) (33, 4, 5.00000000000000000000e-01) (0, 0, 0.00000000000000000000e+00) 
connections (connected_to_neuron, weight)=(0, -1.12544641375542445183e-02) (1, 9.51136677980422284850e-02) (2, 2.42108843743800254689e-02) (3, 1.61306205344200065399e-01) (4, 1.22341784787177970673e-01) (5, 4.71389024972914821854e-02) (6, 1.12428712797164848114e-01) (7, 3.83257224678992397537e-02) (8, -1.07021973013878626824e-02) (9, -2.28859678387642664910e-02) (10, 4.49347044229498823742e-03) (0, -2.92605132341385645867e-02) (1, 6.74917429208754526826e-02) (2, -1.73023015737534327507e-02) (3, 4.91974830150603420487e-02) (4, 1.10936704230308463837e-01) (5, 1.62175285768508842255e-01) (6, 1.29050049138069083954e-01) (7, -7.03392629623420667651e-03) (8, 2.97229319334029289112e-02) (9, 2.25044335126868208508e-03) (10, 7.21127196669577585908e-02) (0, 4.73052069067954189530e-02) (1, 1.07560145807266166473e-01) (2, 1.22889756679534049855e-02) (3, -1.02385625720024867058e-02) (4, 1.69449555826187064911e-01) (5, -1.25888780236244959831e-02) (6, 6.76304280281065928193e-02) (7, 1.13451513600349357391e-01) (8, 2.85012565076350303517e-02) (9, 6.96079089760779368135e-02) (10, 1.48933130455017020966e-01) (0, 1.67935836267471244598e-01) (1, 1.46536233973503043915e-01) (2, 8.33796217560767161103e-02) (3, 1.00786193728446098195e-02) (4, 4.02828260779379970780e-02) (5, 8.23209836602210032197e-02) (6, 1.75528294861315818653e-02) (7, 5.93385129690169460526e-02) (8, 1.51363405537605216766e-01) (9, 1.36270850419997306691e-02) (10, 7.93281375885008799287e-02) (0, -4.81155312236883181409e-01) (1, -5.63027544495203091657e-01) (2, -5.89621661779024197614e-01) (3, -5.56977665599920346295e-01) (4, -5.09386851069070889508e-01) (5, -4.50502476271726626234e-01) (6, -5.80918113317825390851e-01) (7, -4.76382261690237063245e-01) (8, -5.42409232434370114362e-01) (9, -4.57644424018003481702e-01) (10, -6.15691854235269619977e-01) (0, 7.93465777754782664033e-02) (1, 2.68790229678153129445e-02) (2, 4.62860907316199263195e-03) (3, 4.19393211126326687088e-02) (4, 1.23150441002845695282e-01) (5, 3.82301836729048855057e-02) (6, -1.63585514307022852898e-02) (7, 1.10806140255927970673e-01) (8, 1.67713004302978446747e-01) (9, 1.40410209894171675304e-03) (10, 4.76177140593527919998e-02) (0, 1.59822466921806266571e-01) (1, -1.48561642050743861199e-02) (2, 1.61396953415870597626e-01) (3, 4.74131360173224575272e-02) (4, 1.21457400870323112274e-01) (5, -1.65513277530670924187e-02) (6, 7.07127481222151743623e-02) (7, 1.18035095882415702606e-01) (8, 6.48313194036482798310e-02) (9, 6.89518033981322275849e-02) (10, 1.21835547637939384247e-01) (0, 1.38881567072868278290e-01) (1, 3.14179986238478786698e-02) (2, 9.12238016247748639831e-02) (3, 4.73302557587622768631e-02) (4, 1.28607857179641654755e-01) (5, 1.61138179850578239227e-01) (6, 9.82480823516845014343e-02) (7, 1.04436847519874503876e-01) (8, 1.18909764242172172333e-01) (9, 1.65312024903297355438e-01) (10, 4.79413896322249538651e-02) (0, -1.41826319694605268440e-04) (1, 6.52269452333449351045e-02) (2, 1.18164691281318595673e-01) (3, 4.28018822789191372147e-02) (4, 2.01705686271189781056e-02) (5, 5.56489780068396694412e-02) (6, 1.41224044513702323700e-01) (7, 1.40192652940741499523e-03) (8, 1.11421338737010093556e-02) (9, 1.14807057332992484833e-01) (10, 1.09792157530783744679e-02) (0, -2.34078959107399744988e-02) (1, 3.24264496088027126541e-02) (2, 4.02736022591590053787e-02) (3, 1.27310338568687370087e-01) (4, 1.53813305449485709930e-01) (5, -1.07939437508583827019e-02) (6, 3.51205050468443996659e-02) (7, 1.19169461679458549286e-01) (8, 1.29891890239715507294e-01) (9, 1.41789483976364066864e-01) (10, 1.04639682126045158173e-01) (0, 1.27927514863014152313e-01) (1, 1.26609194231033256317e-01) (2, 1.69788423132896354462e-01) (3, 8.29715162038802134248e-02) (4, 1.51266175460815360809e-01) (5, -2.04953372955323023796e-02) (6, -1.62227944016457362175e-02) (7, -7.59121482372291517260e-03) (8, 6.33996977925299631806e-02) (9, 7.53084490895262678722e-03) (10, 1.98170385777949424611e-02) (0, -6.95625838061244561317e-01) (1, -7.78297685255677773597e-01) (2, -6.44074823876292779090e-01) (3, -7.60483268817336632850e-01) (4, -8.37190132757098748328e-01) (5, -6.49390351196200921180e-01) (6, -6.98571320792110039832e-01) (7, -6.83144923468501641395e-01) (8, -8.11663080175788476112e-01) (9, -8.16168900748164727332e-01) (10, -7.45537560602099969032e-01) (0, -3.45137662410331169660e-01) (1, -5.09502261101794640119e-01) (2, -3.85127476572585503156e-01) (3, -4.18304502188754478986e-01) (4, -4.24411497234893242414e-01) (5, -4.64796251773429314191e-01) (6, -4.11273739456725517805e-01) (7, -4.58516820489955345685e-01) (8, -4.72931600331855217512e-01) (9, -3.42000327229094902570e-01) (10, -3.80259744047713676984e-01) (0, 1.03744986605644157196e-01) (1, 9.09004240751265790710e-02) (2, 1.22689969360827537403e-02) (3, 5.39428919076918728104e-02) (4, 6.71132236242293345185e-02) (5, 2.08831831336020561085e-02) (6, 3.25797751069068081131e-02) (7, 1.71682901203631492482e-02) (8, -3.64121501445779233164e-03) (9, 5.09886025905608303299e-02) (10, 1.43429070234297843800e-02) (0, 1.10176357579231193329e-01) (1, -1.70585334777832789421e-02) (2, 1.46137434196472099091e-01) (3, -1.92638978838921351433e-02) (4, 8.06326299428938852998e-02) (5, 4.14591982483863003006e-02) (6, 5.36393552541731960526e-02) (7, 1.65622773718833854462e-01) (8, 7.09017917037009226533e-02) (9, 9.52342181921004560241e-02) (10, 5.05361511826514370194e-02) (0, 1.00343517482279868946e-02) (1, 9.63112890243529584655e-02) (2, 1.52795198512077262665e-01) (3, 7.78670936346053110810e-02) (4, 1.61257925581931998993e-01) (5, 1.10881897759437492157e-01) (6, 4.09584074735640651932e-02) (7, 3.69286342978476650467e-02) (8, 1.08427527499198844696e-01) (9, -9.62534998655326795580e-03) (10, 7.55898162245749460908e-02) (0, 8.69594245672224985810e-02) (1, -2.39266276836396021843e-02) (2, 1.14104676198959281708e-01) (3, 6.10644663572302778820e-03) (4, 7.99975051999091135713e-02) (5, 1.67114856791496207977e-01) (6, 1.48387390327453544403e-01) (7, -4.17135362625131039804e-03) (8, 1.40952083420753410126e-01) (9, 3.05174022436141105519e-02) (10, 1.54891046833991935516e-01) (0, -7.06918280740649773719e-01) (1, -7.70458590408237053992e-01) (2, -6.92313742061526848914e-01) (3, -7.12033238430888726356e-01) (4, -7.37549390812785699012e-01) (5, -7.87546158005864693763e-01) (6, -6.83114152570636345985e-01) (7, -6.94374498148830010535e-01) (8, -7.47138906439216210487e-01) (9, -7.58403886278541161658e-01) (10, -6.88906040211589409950e-01) (0, -5.39285159825873772199e-01) (1, -3.46331617950988213117e-01) (2, -3.76169032573295036848e-01) (3, -4.53631266176295677717e-01) (4, -3.61274636506629387434e-01) (5, -5.23500799357486168439e-01) (6, -4.58603887974810997541e-01) (7, -5.36169945418429771955e-01) (8, -3.88869828700614372785e-01) (9, -5.15871173858237663801e-01) (10, -4.27511534809661308820e-01) (0, -7.90117251084505478609e-01) (1, -8.99617063210665035555e-01) (2, -8.62936849103628444979e-01) (3, -7.78517010019480149019e-01) (4, -9.34438960955797481844e-01) (5, -9.14563129053770351717e-01) (6, -8.61460889087377834628e-01) (7, -7.72161873386560837496e-01) (8, -9.23746740774570751498e-01) (9, -8.10445072458444992769e-01) (10, -9.49228095219789791415e-01) (0, 5.75750201463698513260e-02) (1, 1.12301948618888786102e-01) (2, 1.07826787185668876434e-01) (3, 9.36867996573447492370e-02) (4, 4.29429068684577114334e-02) (5, -9.60880969762809705736e-03) (6, 1.53710815262794425751e-01) (7, 6.64140015363692270967e-02) (8, 6.90450250625609385224e-02) (9, 8.86527552723883893737e-02) (10, 3.57620223879813320389e-02) (0, -4.08875218748641411359e-01) (1, -3.46687263965201775129e-01) (2, -3.53589869260383049543e-01) (3, -3.65476763963294426496e-01) (4, -3.48522386669707695539e-01) (5, -3.96357855915618340070e-01) (6, -3.67246381163192192609e-01) (7, -4.90564766496014992292e-01) (8, -5.02682103931498924787e-01) (9, -3.58838222145629326398e-01) (10, -3.74654880880904594953e-01) (0, -4.93069818791486758069e-01) (1, -6.10214433249570920026e-01) (2, -4.59675407585241335706e-01) (3, -5.50377904054262234723e-01) (4, -5.87048931595422818219e-01) (5, -5.17081110354997708356e-01) (6, -5.67827573594190671002e-01) (7, -4.63754600462057131605e-01) (8, -5.09164428886510922467e-01) (9, -5.12277899858095242536e-01) (10, -4.40408027347661990003e-01) (0, -8.58477296636759090731e-01) (1, -8.26970490024744320223e-01) (2, -8.92177963958441067049e-01) (3, -8.34023835466562557528e-01) (4, -8.37466853068529415438e-01) (5, -9.04321631745754528353e-01) (6, -9.32581121431051540682e-01) (7, -8.89833877192198086092e-01) (8, -8.36863609359918880770e-01) (9, -7.65732976005731980074e-01) (10, -8.72924054370580959628e-01) (0, -8.33491670296846676180e-01) (1, -8.93424751566110897372e-01) (2, -7.88806649254022995699e-01) (3, -8.72170860276876735995e-01) (4, -7.74680616663156906831e-01) (5, -8.56150748537241268465e-01) (6, -9.24548225806413936922e-01) (7, -8.80930440829454708407e-01) (8, -7.96817990348993698824e-01) (9, -9.18885587112366009066e-01) (10, -9.08966558383165645907e-01) (0, -7.99897583530603806246e-01) (1, -8.77700561986624050448e-01) (2, -9.12311559872089672396e-01) (3, -8.19317283437906662691e-01) (4, -8.64631498561559963534e-01) (5, -8.60452907489000606844e-01) (6, -8.30877410576998043368e-01) (7, -9.55560060547052669833e-01) (8, -8.96840298877416897128e-01) (9, -7.93821113513170639742e-01) (10, -9.50321795747934627840e-01) (0, -8.57386390076338100741e-01) (1, -8.91975576387106228182e-01) (2, -8.32524093197046566317e-01) (3, -8.31368955181299496004e-01) (4, -8.16947089837252060640e-01) (5, -8.28784497783838558504e-01) (6, -7.80002909110247055757e-01) (7, -9.07718023614345836947e-01) (8, -8.15815972493349472749e-01) (9, -8.18132849739252487886e-01) (10, -9.57868399427591610262e-01) (0, 4.00024830818175441971e-02) (1, -2.93708935856819911003e-02) (2, 1.23401350796221824513e-02) (3, 4.95491504192351467362e-02) (4, 2.14718199789523216114e-02) (5, 1.25775757384300163055e-01) (6, 1.62093239974975517059e-01) (7, 1.50065693211555412079e-01) (8, 3.00105954408637007336e-03) (9, 8.76470759034156110534e-02) (10, 1.33225905847549369598e-01) (0, -9.56487322555242824862e-01) (1, -8.81356353269277859042e-01) (2, -9.55208199427782345126e-01) (3, -7.83118279979883591402e-01) (4, -8.68033314452825832674e-01) (5, -8.34791394279657650301e-01) (6, -9.37953049646078396151e-01) (7, -7.75878386901079575289e-01) (8, -7.86946790621935288179e-01) (9, -8.13688041971384445894e-01) (10, -8.53910642073808956454e-01) (0, 5.80280079960822231522e-02) (1, 1.25679704499244621063e-01) (2, 1.47680747461318900848e-01) (3, 1.19280430626869132782e-01) (4, -5.01388763189324765390e-03) (5, -1.94559142470360560417e-02) (6, 5.33666565537451870194e-02) (7, -1.77839443564415736199e-02) (8, 1.54189664077758720184e-01) (9, 1.14523085904121330048e-01) (10, 3.84169771790503628006e-02) (0, 1.23078349184989860321e-01) (1, 2.66831807315348716603e-02) (2, 1.13115969252586295868e-01) (3, -1.10066801786423487663e-02) (4, 5.96108391404151088944e-02) (5, 1.28197538805007865692e-01) (6, 6.49047299742697703095e-02) (7, 1.02689701271057060028e-01) (8, 1.54605525684356620575e-01) (9, 1.04024934720992973114e-01) (10, -3.89577155113229184336e-03) (0, -2.73446783900261683464e-02) (1, 6.69201567292212473603e-02) (2, -2.39545599102974696160e-02) (3, 4.46946948289870388260e-02) (4, 3.26491996169089443436e-02) (5, -1.60170987725258631706e-02) (6, 4.95023607730864650955e-02) (7, 3.50218891620635158768e-02) (8, 6.17510631203650600662e-02) (9, 9.89607750892638471374e-02) (10, 8.25290709257124888154e-02) (11, 1.15061777782440116669e-01) (12, 9.20986786007880475768e-02) (13, 1.51467430543899467255e-01) (14, 1.62052068066596915985e-01) (15, 5.79673379182814724198e-02) (16, 1.05935084772109916473e-01) (17, 1.00036847543716361786e-01) (18, 1.68219703388214042450e-01) (19, 1.17397013258933952118e-01) (20, 1.40578228187560966278e-01) (21, 1.47224846434593131805e-01) (22, 5.69017782330512172928e-02) (23, 1.80554226687816260499e-01) (24, 1.10028195333480766083e-01) (25, 9.28474694013594892272e-02) (26, 1.36389720392227103973e-01) (27, 1.51068213534355094696e-01) (28, 5.23789107322692043534e-02) (29, 1.64793670824435828370e-01) (30, 2.05924709043172449174e-01) (31, 1.11806738328933646942e-01) (32, 1.68270640722182868165e-01) (33, 5.98191275715827114334e-02) (34, 2.12488409778741449419e-01) (35, 2.11358864507344812456e-01) (36, 2.27089912346271127763e-01) (37, 2.18839236250785440507e-01) (38, 1.66262495470046928192e-01) (39, 2.06042029610541910234e-01) (40, 8.35289909958838450166e-02) (41, 1.20644840550422599579e-01) (42, 1.26576754403114249969e-01) (43, 2.43906668841837974415e-02) 
