FANN_FLO_2.1
num_layers=3
learning_rate=0.700000
connection_rate=1.000000
network_type=0
learning_momentum=0.000000
training_algorithm=2
train_error_function=1
train_stop_function=0
cascade_output_change_fraction=0.010000
quickprop_decay=-0.000100
quickprop_mu=1.750000
rprop_increase_factor=1.200000
rprop_decrease_factor=0.500000
rprop_delta_min=0.000000
rprop_delta_max=50.000000
rprop_delta_zero=0.100000
cascade_output_stagnation_epochs=12
cascade_candidate_change_fraction=0.010000
cascade_candidate_stagnation_epochs=12
cascade_max_out_epochs=150
cascade_min_out_epochs=50
cascade_max_cand_epochs=150
cascade_min_cand_epochs=50
cascade_num_candidate_groups=2
bit_fail_limit=3.49999999999999977796e-01
cascade_candidate_limit=1.00000000000000000000e+03
cascade_weight_multiplier=4.00000000000000022204e-01
cascade_activation_functions_count=10
cascade_activation_functions=3 5 7 8 10 11 14 15 16 17 
cascade_activation_steepnesses_count=4
cascade_activation_steepnesses=2.50000000000000000000e-01 5.00000000000000000000e-01 7.50000000000000000000e-01 1.00000000000000000000e+00 
layer_sizes=11 33 2 
scale_included=0
neurons (num_inputs, activation_function, activation_steepness)=(0, 0, 0.00000000000000000000e+00) (0, 0, 0.00000000000000000000e+00) (0, 0, 0.00000000000000000000e+00) (0, 0, 0.00000000000000000000e+00) (0, 0, 0.00000000000000000000e+00) (0, 0, 0.00000000000000000000e+00) (0, 0, 0.00000000000000000000e+00) (0, 0, 0.00000000000000000000e+00) (0, 0, 0.00000000000000000000e+00) (0, 0, 0.00000000000000000000e+00) (0, 0, 0.00000000000000000000e+00) (11, 4, 5.00000000000000000000e-01) (11, 4, 5.00000000000000000000e-01) (11, 4, 5.00000000000000000000e-01) (11, 4, 5.00000000000000000000e-01) (11, 4, 5.00000000000000000000e-01) (11, 4, 5.00000000000000000000e-01) (11, 4, 5.00000000000000000000e-01) (11, 4, 5.00000000000000000000e-01) (11, 4, 5.00000000000000000000e-01) (11, 4, 5.00000000000000000000e-01) (11, 4, 5.00000000000000000000e-01) (11, 4, 5.00000000000000000000e-01) (11, 4, 5.00000000000000000000e-01) (11, 4, 5.00000000000000000000e-01) (11, 4, 5.00000000000000000000e-01) (11, 4, 5.00000000000000000000e-01) (11, 4, 5.00000000000000000000e-01) (11, 4, 5.00000000000000000000e-01) (11, 4, 5.00000000000000000000e-01) (11, 4, 5.00000000000000000000e-01) (11, 4, 5.00000000000000000000e-01) (11, 4, 5.00000000000000000000e-01) (11, 4, 5.00000000000000000000e-01) (11, 4, 5.00000000000000000000e-01) (11, 4, 5.00000000000000000000e-01) (11, 4, 5.00000000000000000000e-01) (11, 4, 5.00000000000000000000e-01) (11, 4, 5.00000000000000000000e-01) (11, 4, 5.00000000000000000000e-01) (11, 4, 5.00000000000000000000e-01) (11, 4, 5.00000000000000000000e-01) (11, 4, 5.00000000000000000000e-01) (0, 0, 0.00000000000000000000e+00) (33, 4, 5.00000000000000000000e-01) (0, 0, 0.00000000000000000000e+00) 
connections (connected_to_neuron, weight)=(0, 1.42589961416315702536e+00) (1, 7.01735264219399912378e-01) (2, -1.51217886796662459581e+00) (3, -1.33093296493203472330e+00) (4, -5.65820755486391213651e-01) (5, -7.01654228109473088182e-01) (6, -1.22359590498787099144e-01) (7, -1.08693822227641767597e+00) (8, -6.68611781344565780927e-01) (9, -1.23188917536649489293e+00) (10, -1.10355899144291424996e+00) (0, 1.39621905492942399718e+00) (1, 9.98066041792297631297e-01) (2, -1.52914387415546793036e+00) (3, -1.38593334973769377605e+00) (4, -7.29664858741865929304e-01) (5, -5.84845503381599352011e-01) (6, -3.01238361042900304465e-01) (7, -9.49989850061171314799e-01) (8, -5.95100751757971280220e-01) (9, -1.28832425572297104566e+00) (10, -1.10718178934952216075e+00) (0, 2.50504608149862195710e-01) (1, 3.06652041356060611754e-01) (2, -1.14449660119171436889e+00) (3, -8.02715682798723073610e-01) (4, -5.27761026501393892829e-01) (5, -1.15033624013490265448e+00) (6, -3.28846012728326309027e-01) (7, -6.02343262824129643818e-01) (8, -4.25935548814901587811e-01) (9, -1.24143864300698725245e+00) (10, -6.58564559217732714558e-01) (0, -5.95216522751233156896e-01) (1, -9.00594407956039066931e-01) (2, -1.90159201685250273117e-01) (3, -2.01977238163563166395e-01) (4, -5.78952235646668644797e-01) (5, -5.68419127542924229601e-01) (6, -5.82796253350531978654e-01) (7, -3.54571915101832502160e-01) (8, -7.43316998177357524114e-01) (9, 4.13259206556706837343e-01) (10, -4.09687514583702061532e-01) (0, -8.98047206027398958739e-01) (1, -9.12218071814632436300e-01) (2, 6.17100779257326981231e-01) (3, -7.94617385103798916368e-03) (4, -6.55545531474219234092e-01) (5, -6.42654969329702896452e-01) (6, -6.08475653945953709467e-01) (7, -6.04718934054758183727e-01) (8, -5.06286273533403941016e-01) (9, 2.14313232658913561945e-02) (10, -3.67228130718106837715e-01) (0, -9.91043237409237054436e-01) (1, -6.01395967465147585074e+00) (2, 7.35349754695191926146e-01) (3, -8.07172958571818810469e-01) (4, -5.66095421324770309290e-01) (5, -1.37951327683515456712e+00) (6, -6.06087242368858580832e-01) (7, -4.97874914840905291591e-01) (8, -7.26885057195471362412e-01) (9, 5.66490348249687913906e-01) (10, -6.17282375091348645135e-01) (0, -9.38302899013862545807e-01) (1, -5.97610828173710473266e-01) (2, 1.16444623068438857239e+00) (3, 9.36258176522671181630e-01) (4, -4.54476123583386737437e-01) (5, -3.19238030450392118453e+00) (6, -3.90729910103746691519e-01) (7, -3.27554389576389048955e-01) (8, 2.36399436846905369736e-02) (9, -8.74618748753828029185e-02) (10, -2.18195510476111714793e-01) (0, -4.42798953501634229291e-01) (1, -1.30054633528984471269e+01) (2, 1.54687273281139914261e+00) (3, 9.42116750477386299956e-01) (4, 1.69994217896894977970e-01) (5, -7.76775664858813663649e-01) (6, -1.02635661976970959941e+00) (7, 1.22478692510507625180e+00) (8, -7.34952784626190624984e-01) (9, 3.12241800057432572491e-01) (10, -2.31423957345770536786e-01) (0, 1.25120528149940457574e+00) (1, -2.37657476722553973048e+00) (2, 5.86235231666167599940e+00) (3, -2.98526483431080458253e-01) (4, -8.54696746310819821524e-01) (5, -9.59875766204848979157e+00) (6, 2.79313930010611555232e+00) (7, -5.28906813599715075469e+00) (8, -2.07653463916668901135e+00) (9, 1.88477327850529730036e-01) (10, -2.50209694860478004674e-01) (0, 1.37827728678828376196e+00) (1, 9.83565683038898019852e-01) (2, -1.29643312914649588841e+00) (3, -1.55988620677813982773e+00) (4, -8.40799741923481391837e-01) (5, -6.68028287097487294410e-01) (6, -1.00480581813279484793e-01) (7, -1.02902633139462551526e+00) (8, -8.41011699554574221338e-01) (9, -1.27629898910035910475e+00) (10, -1.11380137981851712325e+00) (0, 4.76277476427328760877e-01) (1, 5.72174685054879297863e-02) (2, -1.17623913595372897589e+00) (3, -1.36134513136814860879e+00) (4, -3.87238413497100752991e-01) (5, -1.32044645242901004245e+00) (6, 6.47177756336115295177e-02) (7, -6.28757038003912471780e-01) (8, 1.53926399193372281937e-01) (9, -1.11600396224957565394e+00) (10, -6.95916251901927074286e-01) (0, 6.03077871068276150091e-01) (1, 7.24960895090125401197e-01) (2, -1.00302237405380711976e+00) (3, -5.46704067373032120969e-01) (4, -1.07534373149953199622e+00) (5, -5.85857090962099147369e-01) (6, -6.79326733785345027172e-01) (7, -1.11087888312873039887e+00) (8, -1.08733864325027629327e+00) (9, -8.42174628654413504059e-01) (10, -8.74208533993299230502e-01) (0, 4.45582195971348793417e-01) (1, -5.32486442260732273368e-01) (2, -1.33656608987185188120e+00) (3, -8.05315686017661791496e-01) (4, -5.08784594197407735727e-01) (5, -1.13040222400743517461e+00) (6, 5.65305812312335231873e-01) (7, -4.75491006334512966713e-01) (8, -1.90344737374302269695e-01) (9, -9.05121315921620706035e-01) (10, -7.11129015165374078755e-01) (0, 5.11622964747258990315e-01) (1, -2.58801800423885848546e-02) (2, -1.22832459392813686527e+00) (3, -1.61639429458090955194e+00) (4, -5.49278000152843448589e-01) (5, -1.06712255476382411601e+00) (6, 8.21984561293496840406e-01) (7, -6.30372113177985915478e-01) (8, -6.80718470159274828546e-03) (9, -1.41484282241962899818e+00) (10, -6.61765559095475075502e-01) (0, 3.42622868653945589212e-01) (1, -1.38606668027464241533e-01) (2, -1.40601567899140489359e+00) (3, -9.87866015004753128537e-01) (4, -3.18028446816448928658e-01) (5, -9.34861057881301804606e-01) (6, 1.86843292098119229117e-01) (7, -6.59810450595277320218e-01) (8, -1.08833695606419186830e-01) (9, -1.01553226910021265894e+00) (10, -5.93808549507089500352e-01) (0, -4.72128120923696492639e-01) (1, -6.13216961722094611176e-01) (2, -1.79186560973387587481e-01) (3, 9.28886235303960222653e-02) (4, -7.15449630630870636594e-01) (5, -6.71985310885837239248e-01) (6, -7.09575460018235348869e-01) (7, -6.05988129716707457639e-01) (8, -6.43621191121971247817e-01) (9, 7.34797480227048716017e-01) (10, -4.09938899255208155648e-01) (0, 1.46753689095159844946e+00) (1, 6.99799555900257996832e-01) (2, -1.49192740017255065510e+00) (3, -1.40943640878861708998e+00) (4, -6.62568695972296950458e-01) (5, -6.90687635910927189009e-01) (6, -1.60875739694670283342e-01) (7, -8.96530807460126699659e-01) (8, -6.69497858785400579151e-01) (9, -1.21247135011967333007e+00) (10, -1.09323474072272497359e+00) (0, 5.86560297914480832659e-01) (1, 7.36668362668906229196e-01) (2, -9.37853589377001140015e-01) (3, -5.49550792842361635060e-01) (4, -1.03856124432343732700e+00) (5, -6.16002363905100103203e-01) (6, -7.27409701763191196555e-01) (7, -1.02703187464735790080e+00) (8, -9.79294120788437694181e-01) (9, -9.27585318932291569283e-01) (10, -9.43871362064757635224e-01) (0, -8.22138275550613362164e-01) (1, -1.16677466079672687016e+00) (2, 5.52607144495675939311e-01) (3, -3.35259419356355448105e-02) (4, -5.55105324157729174139e-01) (5, -6.80816974737569080567e-01) (6, -7.39167247507972802190e-01) (7, -5.94636454075571641020e-01) (8, -5.08261273485870246347e-01) (9, -1.70567000754043261723e-02) (10, -4.67734612756309175996e-01) (0, 4.93876546246678871377e-01) (1, -3.01783607017580335352e+00) (2, -2.42311139469831182680e+00) (3, -1.70429018157323497462e+00) (4, -4.54206364231317827329e-01) (5, -2.02884466856575951255e+00) (6, 2.47077225981072823302e+00) (7, -6.73188321050478766239e-01) (8, 1.29926541605353840225e+00) (9, -7.13793453910265718321e-01) (10, -5.79339074573335111040e-01) (0, -4.97369191523091280782e-01) (1, -7.62580185962260181931e-01) (2, -8.08653422980950414845e-02) (3, -2.07852124341948135688e-01) (4, -5.26741768506527319182e-01) (5, -5.44954157175090658782e-01) (6, -7.40637503748285630500e-01) (7, -4.55768105834945480570e-01) (8, -6.28751806942868807226e-01) (9, 4.59930086352604461375e-01) (10, -4.91072618194795751378e-01) (0, -4.63922372958517292840e-01) (1, -4.05288559227875544444e-01) (2, -1.01317677494607932820e-01) (3, 1.65080224010369841503e-01) (4, -1.63082557593149962694e-01) (5, -1.11764357853430640333e+00) (6, -1.14612206976346428511e-01) (7, -1.09408652871923695038e-01) (8, -2.59278261491137418382e-01) (9, -9.49101189776497128348e-02) (10, -4.19140955917663479008e-03) (0, 4.39245693087779720543e-01) (1, 7.94632332529847662528e-02) (2, -1.24656783266862891679e+00) (3, -1.60211002306988037347e+00) (4, -5.43143958206822818902e-01) (5, -1.43794564289965065562e+00) (6, 6.85775971802828898660e-01) (7, -6.36362586119211592894e-01) (8, -9.04348054694140979226e-02) (9, -1.32865172508794548989e+00) (10, -6.12631125617017269214e-01) (0, -4.32399262475444357001e-01) (1, -6.38185939417722281064e-01) (2, -1.83781732310101843242e-02) (3, -1.39389838473416433073e-01) (4, -7.10487238721136171726e-01) (5, -5.01812141858856253229e-01) (6, -6.05440224955499206594e-01) (7, -5.80509998044140829165e-01) (8, -6.74148884526211911172e-01) (9, 3.13567951919099474622e-01) (10, -4.05294828540044060894e-01) (0, -4.47632920849333815205e-01) (1, -1.06803453657220348560e+00) (2, -3.15908683872620568711e-02) (3, -2.49934253636798303644e-01) (4, -6.76217059552446375648e-01) (5, -5.82214966943467304716e-01) (6, -6.47385747491759810934e-01) (7, -6.30221299140716451070e-01) (8, -8.94876469865427348616e-01) (9, 6.88893386863824508382e-01) (10, -4.38463070513466057765e-01) (0, -6.21292889380815060996e-01) (1, -7.33210903619616938265e-01) (2, 1.51657585712319376015e+00) (3, -4.48640617609796857335e-02) (4, -6.34610815947758588607e-01) (5, -3.45730311822127100996e+00) (6, -5.59758262635568493160e-01) (7, -5.27722856798516160026e-01) (8, -5.61325696421865250052e-01) (9, 2.44425064320357710024e-01) (10, -2.84745671546834000498e-01) (0, -5.60379804604896447628e-01) (1, -7.55253491725453418582e-01) (2, 3.39349121778516130132e-02) (3, -2.71856283829517153539e-01) (4, -7.02918262102945945458e-01) (5, -4.75846841813995835579e-01) (6, -5.97602205625582083570e-01) (7, -5.16698469425554973711e-01) (8, -7.17859135970301709406e-01) (9, 4.26743993711060143337e-01) (10, -4.71837014594357340158e-01) (0, 3.26069891028611003048e-01) (1, -3.35261397761655066674e+00) (2, -7.18862951400960259463e+00) (3, 2.67348576767855483638e+00) (4, -4.21621779414360187133e-01) (5, -4.30991218575580870009e-01) (6, 6.06891527765225813340e+00) (7, -5.36025742789847270409e-01) (8, 8.41482892530589055013e-01) (9, -2.89149338492593477312e+00) (10, -6.50957988354510685980e-01) (0, -8.78179732113800293192e-01) (1, -9.72149631475497044697e-01) (2, 4.41011893392940279579e-01) (3, -2.73981932261020732014e-04) (4, -5.51185677711435340065e-01) (5, -6.37804651962651791841e-01) (6, -6.95066454996306926084e-01) (7, -4.38392848795861100886e-01) (8, -5.07796527260316099550e-01) (9, -9.11779078876962661981e-02) (10, -4.64346288203829060670e-01) (0, -1.62609064414101556206e-01) (1, -8.99219465304626552893e+00) (2, 2.31733750114192904590e+00) (3, -1.02578023412807777248e+01) (4, 3.17451208968457132542e-01) (5, 7.33932842615249159124e-01) (6, -1.25852675517732315313e+00) (7, 2.03650954222794977611e+00) (8, -7.27858181785926761087e-01) (9, 1.01800419676467446273e+00) (10, 1.10737012963738085114e-01) (0, 1.19154554815704294413e+00) (1, -6.59871896583958061910e+00) (2, -7.41202603924380198919e+00) (3, -7.33640722971022896104e-01) (4, -3.84769748624807783610e-01) (5, -5.17874030057048706510e+00) (6, 8.57078876833800862300e+00) (7, -5.62431154558836077229e-01) (8, 1.38432396917575961659e+00) (9, -9.21516946039072970542e-01) (10, -4.18371050637072805500e-01) (0, -5.65944581490779308197e-01) (1, -8.66119351062003439701e-01) (2, 2.49147309020609983299e-02) (3, -2.08736666702016987474e-01) (4, -5.54288469961072616243e-01) (5, -4.60088709927474581729e-01) (6, -6.04682040314383661972e-01) (7, -5.38275007286669771034e-01) (8, -7.67910905729266901609e-01) (9, 3.28993427718018649486e-01) (10, -4.42552746341742131442e-01) (11, 1.51415197804528522951e+00) (12, 1.87073145101616522545e+00) (13, 3.22494034296116338645e-02) (14, -1.09414996879987291845e-01) (15, -1.80772443226090123725e-01) (16, 1.57867849129838333511e+00) (17, -8.32120074336875070742e-02) (18, -3.96511843821310105973e-01) (19, -2.23873516267242722577e+00) (20, 1.51510416639859779586e+00) (21, 2.02957256063387075917e-01) (22, -1.37474584702109003942e+00) (23, 4.66553007431770444535e-02) (24, 1.97161486147576198169e-01) (25, 5.90790998749684409530e-02) (26, -9.02498371606685612090e-02) (27, 1.51073006261658226990e+00) (28, -1.35941414066335619637e+00) (29, -1.00062826001030419354e-01) (30, 1.08563644430955563713e-01) (31, -1.45932558630672587485e-01) (32, -2.18492919358407589048e-02) (33, 1.88984740724594230121e-01) (34, -9.87374825057747429469e-02) (35, -1.37483019450540172590e-01) (36, -2.17841895857827899663e-01) (37, -1.65658494225549762779e-01) (38, -1.39670895783522208689e+00) (39, -1.41510941271770357419e-01) (40, -4.05261196765333320258e+00) (41, 5.38900942333121335537e+00) (42, -1.08477856287090182463e-01) (43, 9.69059551240122607485e-02) 
